<?xml version="1.0"?>
<opencv_storage>
<cascade>
  <stageType>BOOST</stageType>
  <featureType>LBP</featureType>
  <height>24</height>
  <width>24</width>
  <stageParams>
    <boostType>GAB</boostType>
    <minHitRate>9.9500000476837158e-01</minHitRate>
    <maxFalseAlarm>3.0000001192092896e-01</maxFalseAlarm>
    <weightTrimRate>9.4999998807907104e-01</weightTrimRate>
    <maxDepth>1</maxDepth>
    <maxWeakCount>100</maxWeakCount></stageParams>
  <featureParams>
    <maxCatCount>256</maxCatCount>
    <featSize>1</featSize></featureParams>
  <stageNum>6</stageNum>
  <stages>
    <!-- stage 0 -->
    <_>
      <maxWeakCount>3</maxWeakCount>
      <stageThreshold>-1.2318511009216309e+00</stageThreshold>
      <weakClassifiers>
        <_>
          <internalNodes>
            0 -1 10 -2097170 -143133897 -250088977 -2622145 -990909441
            -1061960921 -301995009 -4161</internalNodes>
          <leafValues>
            -9.6722227334976196e-01 8.0832284688949585e-01</leafValues></_>
        <_>
          <internalNodes>
            0 -1 4 2147477487 -2107937 806375925 1977602559 -262145
            -71321153 1941176319 -1</internalNodes>
          <leafValues>
            -9.2835378646850586e-01 8.2064521312713623e-01</leafValues></_>
        <_>
          <internalNodes>
            0 -1 3 -2058253814 -577699631 -1726787336 -201522723
            -131024129 -73826152 -1299450881 -4211969</internalNodes>
          <leafValues>
            -9.6538007259368896e-01 6.6372495889663696e-01</leafValues></_></weakClassifiers></_>
    <!-- stage 1 -->
    <_>
      <maxWeakCount>3</maxWeakCount>
      <stageThreshold>-1.2840064764022827e+00</stageThreshold>
      <weakClassifiers>
        <_>
          <internalNodes>
            0 -1 13 -205 -2100993 -1059062305 -11297 -67108865 -10257
            586940159 -1</internalNodes>
          <leafValues>
            -9.2320179939270020e-01 6.3976174592971802e-01</leafValues></_>
        <_>
          <internalNodes>
            0 -1 6 -285212673 -285214721 1930646343 1979150709 -2097153
            -67391553 2009595703 -2049</internalNodes>
          <leafValues>
            -9.0925532579421997e-01 6.0667645931243896e-01</leafValues></_>
        <_>
          <internalNodes>
            0 -1 8 -787361298 -36171576 -653142530 -10579492 -1149062936
            -63962699 -74728452 -34371393</internalNodes>
          <leafValues>
            -9.1680175065994263e-01 5.4845070838928223e-01</leafValues></_></weakClassifiers></_>
    <!-- stage 2 -->
    <_>
      <maxWeakCount>4</maxWeakCount>
      <stageThreshold>-7.5226658582687378e-01</stageThreshold>
      <weakClassifiers>
        <_>
          <internalNodes>
            0 -1 15 -16777601 -11777 -1338116865 -11297 -16777602
            -67111697 -251658497 -1</internalNodes>
          <leafValues>
            -9.0942960977554321e-01 5.3700786828994751e-01</leafValues></_>
        <_>
          <internalNodes>
            0 -1 5 -134217745 -2049 288445951 2147483647 -67372033
            -265473 -1 2147483647</internalNodes>
          <leafValues>
            -9.1680622100830078e-01 5.3062552213668823e-01</leafValues></_>
        <_>
          <internalNodes>
            0 -1 1 -268439566 -335875598 -44572678 -1038 -6292481
            -67126785 -2097153 -1025</internalNodes>
          <leafValues>
            -9.3666344881057739e-01 5.1824820041656494e-01</leafValues></_>
        <_>
          <internalNodes>
            0 -1 7 -1048609 -1052193 -4 -8193 -72614945 -179963045
            -67109889 -707920929</internalNodes>
          <leafValues>
            -8.4054374694824219e-01 5.6419527530670166e-01</leafValues></_></weakClassifiers></_>
    <!-- stage 3 -->
    <_>
      <maxWeakCount>4</maxWeakCount>
      <stageThreshold>-1.0582914352416992e+00</stageThreshold>
      <weakClassifiers>
        <_>
          <internalNodes>
            0 -1 9 -268437710 -1038 -175115949 -11277 -1049617 -4226901
            -3146753 -1025</internalNodes>
          <leafValues>
            -8.5083800554275513e-01 3.0913829803466797e-01</leafValues></_>
        <_>
          <internalNodes>
            0 -1 14 -1114155 -67109889 -1769473 -17830913 -14222345
            -336621317 -16712769 -991433793</internalNodes>
          <leafValues>
            -9.2312693595886230e-01 3.8739925622940063e-01</leafValues></_>
        <_>
          <internalNodes>
            0 -1 17 -69238785 -10241 -639897121 -2099233 -70259713
            -89478950 -5242881 2147483647</internalNodes>
          <leafValues>
            -9.5364964008331299e-01 3.7804031372070313e-01</leafValues></_>
        <_>
          <internalNodes>
            0 -1 16 -285217161 -3105 -1571626322 -285219873 -352391594
            -6565233 -1428227330 -16778241</internalNodes>
          <leafValues>
            -8.2234305143356323e-01 4.7711282968521118e-01</leafValues></_></weakClassifiers></_>
    <!-- stage 4 -->
    <_>
      <maxWeakCount>2</maxWeakCount>
      <stageThreshold>-7.0438975095748901e-01</stageThreshold>
      <weakClassifiers>
        <_>
          <internalNodes>
            0 -1 18 -1 -1025 -262145 -1 -2097153 -16901 -1 2147483647</internalNodes>
          <leafValues>
            -9.6056199073791504e-01 2.5156590342521667e-01</leafValues></_>
        <_>
          <internalNodes>
            0 -1 0 -1073741825 -268435457 -536870913 -1 -1 -1029
            -1049601 2147483647</internalNodes>
          <leafValues>
            -1. 2.5617226958274841e-01</leafValues></_></weakClassifiers></_>
    <!-- stage 5 -->
    <_>
      <maxWeakCount>4</maxWeakCount>
      <stageThreshold>-8.7375056743621826e-01</stageThreshold>
      <weakClassifiers>
        <_>
          <internalNodes>
            0 -1 11 -1 -2099201 -10241 -67585 -69206049 -6296325 -65569
            -65537</internalNodes>
          <leafValues>
            -7.4319261312484741e-01 6.4021164178848267e-01</leafValues></_>
        <_>
          <internalNodes>
            0 -1 18 -1 -1025 -541329921 -2049 -1 -262145 -1048577
            2147483645</internalNodes>
          <leafValues>
            -9.4174695014953613e-01 4.2635214328765869e-01</leafValues></_>
        <_>
          <internalNodes>
            0 -1 12 -274780369 -1537 -254607629 -185204745 -22283265
            -4204385 -1704961 -168493057</internalNodes>
          <leafValues>
            -8.5957062244415283e-01 4.2733833193778992e-01</leafValues></_>
        <_>
          <internalNodes>
            0 -1 2 -17891361 -553656355 -33554465 -572667427 -33 -11437
            -134742057 -176690921</internalNodes>
          <leafValues>
            -8.8389104604721069e-01 3.8385063409805298e-01</leafValues></_></weakClassifiers></_></stages>
  <features>
    <_>
      <rect>
        0 0 1 1</rect></_>
    <_>
      <rect>
        0 0 4 3</rect></_>
    <_>
      <rect>
        0 0 5 8</rect></_>
    <_>
      <rect>
        0 0 8 1</rect></_>
    <_>
      <rect>
        0 0 8 4</rect></_>
    <_>
      <rect>
        0 0 8 5</rect></_>
    <_>
      <rect>
        0 2 4 5</rect></_>
    <_>
      <rect>
        0 9 8 5</rect></_>
    <_>
      <rect>
        0 21 8 1</rect></_>
    <_>
      <rect>
        1 0 2 4</rect></_>
    <_>
      <rect>
        3 4 6 6</rect></_>
    <_>
      <rect>
        3 21 1 1</rect></_>
    <_>
      <rect>
        4 1 5 1</rect></_>
    <_>
      <rect>
        9 0 5 5</rect></_>
    <_>
      <rect>
        9 0 5 8</rect></_>
    <_>
      <rect>
        14 1 3 3</rect></_>
    <_>
      <rect>
        17 2 2 4</rect></_>
    <_>
      <rect>
        21 0 1 1</rect></_>
    <_>
      <rect>
        21 21 1 1</rect></_></features></cascade>
</opencv_storage>
