<?xml version="1.0"?>
<opencv_storage>
<cascade>
  <stageType>BOOST</stageType>
  <featureType>LBP</featureType>
  <height>24</height>
  <width>24</width>
  <stageParams>
    <boostType>GAB</boostType>
    <minHitRate>9.9500000476837158e-01</minHitRate>
    <maxFalseAlarm>3.0000001192092896e-01</maxFalseAlarm>
    <weightTrimRate>9.4999998807907104e-01</weightTrimRate>
    <maxDepth>1</maxDepth>
    <maxWeakCount>100</maxWeakCount></stageParams>
  <featureParams>
    <maxCatCount>256</maxCatCount>
    <featSize>1</featSize></featureParams>
  <stageNum>5</stageNum>
  <stages>
    <!-- stage 0 -->
    <_>
      <maxWeakCount>2</maxWeakCount>
      <stageThreshold>-2.3542803525924683e-01</stageThreshold>
      <weakClassifiers>
        <_>
          <internalNodes>
            0 -1 8 -269095121 -136842795 1347473651 -136849449 -89916417
            -71589381 -192675841 -1</internalNodes>
          <leafValues>
            -9.5433640480041504e-01 7.9413628578186035e-01</leafValues></_>
        <_>
          <internalNodes>
            0 -1 5 -3145778 -36851249 -48694292 -3156017 -75366449
            1094836495 -7602225 -10486849</internalNodes>
          <leafValues>
            -9.6424543857574463e-01 7.1890836954116821e-01</leafValues></_></weakClassifiers></_>
    <!-- stage 1 -->
    <_>
      <maxWeakCount>4</maxWeakCount>
      <stageThreshold>-7.4706852436065674e-01</stageThreshold>
      <weakClassifiers>
        <_>
          <internalNodes>
            0 -1 3 -262161 -18945 269972211 -3585 -4457473 -4222465
            -67371009 -1025</internalNodes>
          <leafValues>
            -8.6936014890670776e-01 6.7874944210052490e-01</leafValues></_>
        <_>
          <internalNodes>
            0 -1 18 -67112160 -207645809 -1073512445 -204475765
            -203431392 -1072988158 -473181533 2147480559</internalNodes>
          <leafValues>
            -8.9472794532775879e-01 5.0826764106750488e-01</leafValues></_>
        <_>
          <internalNodes>
            0 -1 10 -268705240 -35663660 -791416077 -168439339 -89981954
            -286532 -257623041 -17409</internalNodes>
          <leafValues>
            -9.2790365219116211e-01 4.8359566926956177e-01</leafValues></_>
        <_>
          <internalNodes>
            0 -1 7 -653141522 -40496752 -720251394 -8486402 -1199523588
            -1197473648 -610550788 -280326</internalNodes>
          <leafValues>
            -8.6354678869247437e-01 5.4192763566970825e-01</leafValues></_></weakClassifiers></_>
    <!-- stage 2 -->
    <_>
      <maxWeakCount>4</maxWeakCount>
      <stageThreshold>-9.0730303525924683e-01</stageThreshold>
      <weakClassifiers>
        <_>
          <internalNodes>
            0 -1 14 -67109057 -67110945 -1573191937 -83887617 -67108993
            -2381409 -251856129 -83886081</internalNodes>
          <leafValues>
            -8.8044148683547974e-01 3.2817071676254272e-01</leafValues></_>
        <_>
          <internalNodes>
            0 -1 1 -285283586 -758201362 -2147254269 -203426869
            -208682869 -528285622 -72617317 2147482559</internalNodes>
          <leafValues>
            -8.6380976438522339e-01 4.6026849746704102e-01</leafValues></_>
        <_>
          <internalNodes>
            0 -1 9 -268441609 -268437515 -215264907 -134908555 -1049601
            -6556753 -67374089 -2057</internalNodes>
          <leafValues>
            -7.5851488113403320e-01 5.8564686775207520e-01</leafValues></_>
        <_>
          <internalNodes>
            0 -1 19 -1025 -2256641 -582487041 -2107649 -69468161
            -5537589 -71304193 2147467261</internalNodes>
          <leafValues>
            -9.3722736835479736e-01 4.6563982963562012e-01</leafValues></_></weakClassifiers></_>
    <!-- stage 3 -->
    <_>
      <maxWeakCount>4</maxWeakCount>
      <stageThreshold>-5.4906463623046875e-01</stageThreshold>
      <weakClassifiers>
        <_>
          <internalNodes>
            0 -1 11 -2097153 -13349 -82706945 -76289 -2098177 -70283085
            -73210165 -66625</internalNodes>
          <leafValues>
            -7.1305596828460693e-01 5.8698374032974243e-01</leafValues></_>
        <_>
          <internalNodes>
            0 -1 2 -1478756353 -11265 -715786241 -8399985 -71565313
            -71586657 -68158465 2147482623</internalNodes>
          <leafValues>
            -8.6285448074340820e-01 4.4431370496749878e-01</leafValues></_>
        <_>
          <internalNodes>
            0 -1 4 -16779777 -16778753 1431786753 -35467 -67142657 -1825
            2079553367 -3201</internalNodes>
          <leafValues>
            -6.2794750928878784e-01 6.6530799865722656e-01</leafValues></_>
        <_>
          <internalNodes>
            0 -1 17 -32769 -2593 -648160769 -14849 -70518401 -74733825
            -263169 2147482619</internalNodes>
          <leafValues>
            -9.9730521440505981e-01 3.6153781414031982e-01</leafValues></_></weakClassifiers></_>
    <!-- stage 4 -->
    <_>
      <maxWeakCount>6</maxWeakCount>
      <stageThreshold>-9.2681300640106201e-01</stageThreshold>
      <weakClassifiers>
        <_>
          <internalNodes>
            0 -1 15 -1048577 -1051681 15134442 -336658465 -9 -5527297
            -285279494 -1</internalNodes>
          <leafValues>
            -7.4886876344680786e-01 4.8142415285110474e-01</leafValues></_>
        <_>
          <internalNodes>
            0 -1 6 -2097153 -2049 -136970242 -16842753 -67109889 -262657
            -263169 2147418111</internalNodes>
          <leafValues>
            -9.4249886274337769e-01 3.0996441841125488e-01</leafValues></_>
        <_>
          <internalNodes>
            0 -1 12 -1358954497 -83953665 -73666113 -33555851 -3170049
            -342884417 -340268175 -134265488</internalNodes>
          <leafValues>
            -7.4126255512237549e-01 4.3977591395378113e-01</leafValues></_>
        <_>
          <internalNodes>
            0 -1 13 -16 -301933278 -2107393 -38733002 -12 -8656137 -139
            -524317</internalNodes>
          <leafValues>
            -7.7780920267105103e-01 3.9432308077812195e-01</leafValues></_>
        <_>
          <internalNodes>
            0 -1 0 -280496129 -268698657 -183240737 -2100273 -2097153
            -6579565 -1049601 2147482623</internalNodes>
          <leafValues>
            -8.1323689222335815e-01 4.2271164059638977e-01</leafValues></_>
        <_>
          <internalNodes>
            0 -1 16 -8388609 -1048577 -9 -1114164 -3 -1 -3 -2097171</internalNodes>
          <leafValues>
            -4.3895927071571350e-01 7.4369251728057861e-01</leafValues></_></weakClassifiers></_></stages>
  <features>
    <_>
      <rect>
        0 0 1 2</rect></_>
    <_>
      <rect>
        0 0 1 8</rect></_>
    <_>
      <rect>
        0 0 2 1</rect></_>
    <_>
      <rect>
        0 0 8 4</rect></_>
    <_>
      <rect>
        0 3 4 5</rect></_>
    <_>
      <rect>
        0 8 8 5</rect></_>
    <_>
      <rect>
        0 21 2 1</rect></_>
    <_>
      <rect>
        0 21 8 1</rect></_>
    <_>
      <rect>
        1 0 7 3</rect></_>
    <_>
      <rect>
        2 1 3 4</rect></_>
    <_>
      <rect>
        3 0 6 2</rect></_>
    <_>
      <rect>
        3 21 1 1</rect></_>
    <_>
      <rect>
        5 2 1 4</rect></_>
    <_>
      <rect>
        12 9 4 5</rect></_>
    <_>
      <rect>
        13 2 3 3</rect></_>
    <_>
      <rect>
        15 4 3 4</rect></_>
    <_>
      <rect>
        18 21 1 1</rect></_>
    <_>
      <rect>
        21 0 1 1</rect></_>
    <_>
      <rect>
        21 0 1 8</rect></_>
    <_>
      <rect>
        21 21 1 1</rect></_></features></cascade>
</opencv_storage>
